{
  "config": {
    "hidden_size": 16,
    "moe_intermediate_size": 8,
    "n_routed_experts": 8,
    "num_experts_per_tok": 2,
    "n_shared_experts": 1,
    "n_group": 2,
    "topk_group": 1,
    "routed_scaling_factor": 1.0,
    "norm_topk_prob": 1
  },
  "weights": {
    "gate.weight": [
      [
        -0.06288307905197144,
        0.022499263286590576,
        -0.0669146180152893,
        -0.24477830529212952,
        -0.025891989469528198,
        0.12197989225387573,
        -0.029086709022521973,
        -0.12310320138931274,
        0.007921397686004639,
        0.04562181234359741,
        -0.06975391507148743,
        -0.19387102127075195,
        -0.13403579592704773,
        -0.04075825214385986,
        0.09003570675849915,
        0.2223183810710907
      ],
      [
        0.004639714956283569,
        0.08951053023338318,
        0.14384278655052185,
        -0.10901293158531189,
        -0.08295422792434692,
        0.1658264696598053,
        0.17899703979492188,
        0.059239715337753296,
        -0.19319561123847961,
        0.14189660549163818,
        -0.20662376284599304,
        0.12495559453964233,
        0.02962857484817505,
        0.08075368404388428,
        -0.2436869740486145,
        -0.08789381384849548
      ],
      [
        0.10617414116859436,
        0.192421555519104,
        -0.07157263159751892,
        0.2229374349117279,
        -0.05578970909118652,
        -0.1507866084575653,
        -0.1082608699798584,
        0.015556752681732178,
        -0.04443332552909851,
        0.1210009753704071,
        -0.13835546374320984,
        -0.07111763954162598,
        -0.24775326251983643,
        0.20406082272529602,
        -0.047040730714797974,
        -0.19707801938056946
      ],
      [
        -0.012063533067703247,
        -0.0004563331604003906,
        0.06943204998970032,
        -0.027440249919891357,
        0.1572657823562622,
        -0.08625593781471252,
        -0.074827641248703,
        -0.05936744809150696,
        0.04463249444961548,
        0.20030507445335388,
        -0.011503368616104126,
        0.19235724210739136,
        0.19638660550117493,
        -0.13016247749328613,
        -0.021480053663253784,
        -0.11801475286483765
      ],
      [
        0.1039935052394867,
        -0.08789226412773132,
        0.0762624740600586,
        0.01493614912033081,
        -0.16411635279655457,
        -0.16807353496551514,
        -0.24418121576309204,
        -0.1398453712463379,
        0.06983858346939087,
        0.015231460332870483,
        0.18802550435066223,
        -0.21982860565185547,
        -0.007305443286895752,
        -0.22416245937347412,
        0.0014634132385253906,
        0.09108415246009827
      ],
      [
        -0.2242608368396759,
        0.2207881212234497,
        -0.07764774560928345,
        0.22150903940200806,
        -0.041962772607803345,
        0.141828715801239,
        0.22726914286613464,
        -0.09101837873458862,
        -0.060771673917770386,
        0.1311323642730713,
        -0.21403273940086365,
        0.14798200130462646,
        -0.15702831745147705,
        0.23219084739685059,
        -0.1638413369655609,
        -0.10287785530090332
      ],
      [
        0.18654635548591614,
        -0.10884669423103333,
        0.21428781747817993,
        0.17200487852096558,
        0.22850286960601807,
        -0.24232050776481628,
        0.002801954746246338,
        -0.0822283923625946,
        0.05955091118812561,
        -0.18876278400421143,
        0.10251349210739136,
        -0.011843442916870117,
        -0.11817216873168945,
        -0.22490090131759644,
        0.13076704740524292,
        -0.09047630429267883
      ],
      [
        0.184469074010849,
        0.044503599405288696,
        0.07603508234024048,
        -0.037916094064712524,
        -0.03463098406791687,
        -0.08492740988731384,
        -0.2164752185344696,
        0.15717408061027527,
        -0.15743523836135864,
        0.14570939540863037,
        -0.08432063460350037,
        0.15661725401878357,
        0.21425554156303406,
        -0.1529015302658081,
        0.20643138885498047,
        0.006093114614486694
      ]
    ],
    "gate.e_score_correction_bias": [
      0.0,
      0.0,
      0.0,
      0.0,
      0.0,
      0.0,
      0.0,
      0.0
    ],
    "experts.0.gate_proj.weight": [
      [
        0.19113463163375854,
        0.20750197768211365,
        -0.05856812000274658,
        0.22965282201766968,
        -0.054775893688201904,
        0.050447672605514526,
        -0.12171375751495361,
        0.14682066440582275,
        0.22038573026657104,
        -0.1834070384502411,
        0.21729904413223267,
        0.04678982496261597,
        0.18470221757888794,
        0.033857643604278564,
        0.12054702639579773,
        -0.03529775142669678
      ],
      [
        0.19272145628929138,
        0.03695222735404968,
        -0.11670997738838196,
        0.0637245774269104,
        -0.11518415808677673,
        -0.02931821346282959,
        -0.10153958201408386,
        0.16584274172782898,
        -0.19734254479408264,
        -0.11525258421897888,
        -0.0705936849117279,
        -0.15031811594963074,
        0.02359578013420105,
        -0.24691978096961975,
        0.225777268409729,
        -0.21236705780029297
      ],
      [
        0.19300684332847595,
        0.04160478711128235,
        -0.08117613196372986,
        0.1544874906539917,
        0.03896269202232361,
        0.20199084281921387,
        0.02732992172241211,
        -0.07884329557418823,
        0.06717091798782349,
        -0.06779485940933228,
        0.10521438717842102,
        0.2232055366039276,
        0.14451488852500916,
        -0.109293133020401,
        0.144316166639328,
        0.04473155736923218
      ],
      [
        0.12695875763893127,
        -0.15237626433372498,
        -0.24747711420059204,
        -0.09659013152122498,
        -0.19175571203231812,
        0.20513471961021423,
        0.07200783491134644,
        0.10355338454246521,
        0.07906529307365417,
        -0.0043489933013916016,
        0.1956520676612854,
        -0.17762839794158936,
        0.015740931034088135,
        -0.17063504457473755,
        0.07708799839019775,
        -0.08609557151794434
      ],
      [
        0.07660406827926636,
        -0.05208536982536316,
        0.20734795928001404,
        -0.14817547798156738,
        -0.14909949898719788,
        -0.14910849928855896,
        0.22486069798469543,
        0.08331277966499329,
        0.24056267738342285,
        -0.20631906390190125,
        -0.24796903133392334,
        -0.19559094309806824,
        -0.16817227005958557,
        0.10126003623008728,
        0.0895189642906189,
        0.20773109793663025
      ],
      [
        -0.129106342792511,
        -0.17042794823646545,
        0.13264453411102295,
        -0.10105112195014954,
        0.1517309546470642,
        -0.05932515859603882,
        0.14301148056983948,
        -0.19424200057983398,
        -0.12616243958473206,
        0.0762191116809845,
        0.05285188555717468,
        -0.06373968720436096,
        0.1490173637866974,
        0.16995230317115784,
        -0.1812933385372162,
        -0.13346704840660095
      ],
      [
        0.2289154827594757,
        -0.08435812592506409,
        -0.0886290967464447,
        -0.24189865589141846,
        -0.14316755533218384,
        0.062450915575027466,
        -0.03299829363822937,
        -0.18147149682044983,
        0.005864173173904419,
        -0.17077037692070007,
        -0.21209916472434998,
        -0.13766565918922424,
        -0.2188030183315277,
        -0.1591845154762268,
        0.24990221858024597,
        0.04721873998641968
      ],
      [
        0.0770399272441864,
        -0.23317107558250427,
        -0.16419345140457153,
        -0.08321395516395569,
        0.0390927791595459,
        -0.21998032927513123,
        -0.10771825909614563,
        -0.1496671438217163,
        0.0006928145885467529,
        -0.093025803565979,
        -0.017323940992355347,
        -0.1694074273109436,
        -0.17159879207611084,
        -0.14585044980049133,
        -0.08557435870170593,
        -0.19732022285461426
      ]
    ],
    "experts.0.up_proj.weight": [
      [
        0.2096174657344818,
        -0.0496160089969635,
        0.21509918570518494,
        0.07789552211761475,
        -0.2116992473602295,
        0.17300879955291748,
        -0.06878620386123657,
        -0.09583151340484619,
        -0.2075176239013672,
        -0.24854016304016113,
        0.07152765989303589,
        -0.0546109676361084,
        0.09733077883720398,
        -0.20516586303710938,
        0.18560728430747986,
        -0.18351343274116516
      ],
      [
        -0.043168336153030396,
        0.05221742391586304,
        0.1290629506111145,
        0.20182758569717407,
        0.22773981094360352,
        -0.1982305347919464,
        0.0629168152809143,
        -0.10753148794174194,
        -0.027396202087402344,
        -0.18712252378463745,
        0.2277146577835083,
        -0.18348762392997742,
        0.13361281156539917,
        0.08785989880561829,
        0.08123898506164551,
        -0.13516154885292053
      ],
      [
        0.22723788022994995,
        0.05493760108947754,
        0.032160013914108276,
        -0.22031369805335999,
        0.10494711995124817,
        -0.037505149841308594,
        -0.11453106999397278,
        0.21473664045333862,
        0.055737197399139404,
        -0.13831910490989685,
        -0.12653473019599915,
        -0.011938929557800293,
        0.139590322971344,
        -0.0638834536075592,
        -0.14264371991157532,
        -0.08561071753501892
      ],
      [
        -0.18676871061325073,
        0.08915811777114868,
        0.1935100555419922,
        -0.23536008596420288,
        0.05806267261505127,
        0.1291479468345642,
        0.04533234238624573,
        -0.0890311598777771,
        0.13048553466796875,
        0.13137829303741455,
        0.09348180890083313,
        -0.04393035173416138,
        -0.06620031595230103,
        0.026745229959487915,
        -0.044163525104522705,
        -0.07450026273727417
      ],
      [
        0.15980172157287598,
        0.21484988927841187,
        -0.024749338626861572,
        -0.055974215269088745,
        0.0036480724811553955,
        -0.014927059412002563,
        0.06010282039642334,
        0.07005840539932251,
        -0.22706419229507446,
        -0.09225943684577942,
        0.21053236722946167,
        0.09738874435424805,
        -0.012434393167495728,
        -0.15072643756866455,
        -0.15295127034187317,
        -0.22394171357154846
      ],
      [
        -0.08149060606956482,
        0.08442604541778564,
        0.1594054102897644,
        0.11542433500289917,
        -0.220986008644104,
        -0.15034061670303345,
        -0.03945416212081909,
        0.24183738231658936,
        0.03616437315940857,
        -0.06474268436431885,
        0.10342881083488464,
        -0.09522038698196411,
        -0.1618139147758484,
        0.18247181177139282,
        -0.11367544531822205,
        -0.05011668801307678
      ],
      [
        -0.2487010657787323,
        0.16731765866279602,
        0.18940865993499756,
        0.09111204743385315,
        -0.17431855201721191,
        -0.24673497676849365,
        -0.20304474234580994,
        0.18642506003379822,
        0.12002643942832947,
        0.21037611365318298,
        0.13096746802330017,
        0.06327304244041443,
        -0.002448171377182007,
        -0.19012650847434998,
        -0.21419304609298706,
        -0.23383715748786926
      ],
      [
        0.10234048962593079,
        -0.12274199724197388,
        -0.05031314492225647,
        -0.143876314163208,
        -0.04555588960647583,
        -0.17595872282981873,
        -0.16335391998291016,
        0.08292770385742188,
        -0.07429909706115723,
        0.15433579683303833,
        -0.08020219206809998,
        -0.18339180946350098,
        -0.044109731912612915,
        -0.12118685245513916,
        -0.07648539543151855,
        -0.23799890279769897
      ]
    ],
    "experts.0.down_proj.weight": [
      [
        0.19780990481376648,
        -0.24614547193050385,
        0.1777021884918213,
        0.1604369431734085,
        0.2525900900363922,
        -0.27119386196136475,
        0.2542744576931,
        -0.16714292764663696
      ],
      [
        0.13119277358055115,
        0.3320271670818329,
        -0.04986229166388512,
        -0.0027341924142092466,
        -0.08139880001544952,
        -0.2952116131782532,
        0.16967128217220306,
        -0.3509787619113922
      ],
      [
        0.21948590874671936,
        0.264537513256073,
        0.33435767889022827,
        -0.08339601010084152,
        -0.29049429297447205,
        0.07948949933052063,
        0.19531254470348358,
        -0.3518947660923004
      ],
      [
        -0.08025084435939789,
        -0.2119395136833191,
        -0.03092310018837452,
        -0.17402374744415283,
        -0.14452116191387177,
        -0.11223866045475006,
        -0.3359832167625427,
        0.29009321331977844
      ],
      [
        0.29639485478401184,
        -0.055461585521698,
        -0.04026338830590248,
        -0.1442921757698059,
        -0.3192809224128723,
        -0.3440585136413574,
        0.13140110671520233,
        -0.19411712884902954
      ],
      [
        -0.22729133069515228,
        -0.027585364878177643,
        -0.11773721873760223,
        -0.11438186466693878,
        0.011360093019902706,
        -0.0749930664896965,
        -0.12173282355070114,
        -0.1692834496498108
      ],
      [
        -0.28773143887519836,
        0.29645705223083496,
        -0.1414875090122223,
        0.09368439018726349,
        -0.1226709708571434,
        0.028730198740959167,
        0.329617977142334,
        0.16289006173610687
      ],
      [
        -0.3063892424106598,
        0.14032632112503052,
        0.33560800552368164,
        0.09301400184631348,
        0.23703092336654663,
        0.34856387972831726,
        -0.05417463183403015,
        0.07338158041238785
      ],
      [
        -0.24573200941085815,
        -0.0728592574596405,
        0.26183590292930603,
        0.18124766647815704,
        -0.22372469305992126,
        -0.28350916504859924,
        -0.24160553514957428,
        -0.34891393780708313
      ],
      [
        -0.2728155851364136,
        -0.08743283152580261,
        0.23860511183738708,
        0.05917855724692345,
        -0.2689146399497986,
        -0.2836289703845978,
        0.17588406801223755,
        -0.2629876136779785
      ],
      [
        -0.043532129377126694,
        0.1696016937494278,
        -0.16362877190113068,
        -0.03855142742395401,
        -0.03077486902475357,
        -0.08364484459161758,
        -0.1792629361152649,
        -0.3151710629463196
      ],
      [
        -0.2857973575592041,
        -0.18931429088115692,
        0.3414751887321472,
        -0.17077147960662842,
        -0.23742099106311798,
        0.08569929003715515,
        0.09744296222925186,
        0.19371534883975983
      ],
      [
        0.2687431275844574,
        0.19688473641872406,
        -0.35054853558540344,
        0.03135615959763527,
        0.2141660451889038,
        -0.032677337527275085,
        -0.20834164321422577,
        0.3370565176010132
      ],
      [
        -0.13223880529403687,
        -0.2012936770915985,
        -0.3187478482723236,
        0.015792634338140488,
        0.1566712111234665,
        0.07826358079910278,
        0.06991508603096008,
        -0.26813045144081116
      ],
      [
        -0.33017900586128235,
        0.006225848104804754,
        0.32238203287124634,
        0.2039724886417389,
        -0.20585089921951294,
        -0.04589425027370453,
        -0.2606337368488312,
        -0.17056243121623993
      ],
      [
        0.06402793526649475,
        0.19252343475818634,
        0.29287275671958923,
        -0.3245995044708252,
        0.23639117181301117,
        -0.2493584156036377,
        0.13239416480064392,
        0.299192875623703
      ]
    ],
    "experts.1.gate_proj.weight": [
      [
        0.003510594367980957,
        0.22745224833488464,
        -0.21301287412643433,
        -0.09548979997634888,
        0.1458132266998291,
        -0.054466962814331055,
        -0.051175057888031006,
        -0.1041979193687439,
        0.17232653498649597,
        0.12262579798698425,
        0.0801125168800354,
        -0.14049091935157776,
        -0.20293739438056946,
        0.027040153741836548,
        0.07406970858573914,
        -0.11542797088623047
      ],
      [
        -0.06994941830635071,
        0.16884192824363708,
        0.01991492509841919,
        0.011279582977294922,
        -0.0615251362323761,
        -0.22639742493629456,
        -0.23506435751914978,
        -0.11950376629829407,
        -0.12708035111427307,
        0.07788839936256409,
        -0.07277768850326538,
        -0.09780552983283997,
        0.23835745453834534,
        0.08708071708679199,
        0.178225576877594,
        -0.12102818489074707
      ],
      [
        -0.10211670398712158,
        0.09188511967658997,
        -0.166568785905838,
        -0.163426011800766,
        -0.012074917554855347,
        -0.09144017100334167,
        -0.1874144971370697,
        0.1482897400856018,
        0.20104071497917175,
        0.04055583477020264,
        -0.04352831840515137,
        -0.23156824707984924,
        -0.09105968475341797,
        0.06364640593528748,
        0.11788272857666016,
        -0.031604379415512085
      ],
      [
        -0.098838210105896,
        0.13930651545524597,
        -0.19909992814064026,
        0.158004492521286,
        -0.09698870778083801,
        0.003826349973678589,
        -0.04940396547317505,
        0.030309736728668213,
        -0.07554960250854492,
        0.18178173899650574,
        -0.006499290466308594,
        0.19514986872673035,
        0.24037012457847595,
        -0.12179774045944214,
        -0.18237727880477905,
        0.20057550072669983
      ],
      [
        0.195903480052948,
        -0.19088682532310486,
        -0.019325822591781616,
        -0.24653157591819763,
        -0.20464977622032166,
        0.04828563332557678,
        0.06650865077972412,
        0.052995264530181885,
        -0.06804117560386658,
        0.23064443469047546,
        0.03574448823928833,
        -0.14752119779586792,
        -0.014153450727462769,
        0.060036301612854004,
        0.087548166513443,
        -0.17677021026611328
      ],
      [
        0.09369739890098572,
        -0.1277204155921936,
        -0.2077350914478302,
        -0.1365518569946289,
        0.24110233783721924,
        0.21371445059776306,
        0.223871111869812,
        0.14675280451774597,
        0.1888623833656311,
        -0.03346243500709534,
        -0.13755697011947632,
        0.12491413950920105,
        -0.1295456886291504,
        -0.1687164604663849,
        -0.0798335075378418,
        0.052464812994003296
      ],
      [
        0.1286991536617279,
        -0.09710225462913513,
        -0.14714157581329346,
        0.033723264932632446,
        -0.14735829830169678,
        -0.16276535391807556,
        0.130312979221344,
        -0.041996151208877563,
        0.22844624519348145,
        0.24319565296173096,
        0.07477638125419617,
        0.08603942394256592,
        0.0575709342956543,
        0.003915220499038696,
        -0.018183112144470215,
        0.0034360289573669434
      ],
      [
        0.093356192111969,
        0.232442706823349,
        -0.0647897720336914,
        -0.10567894577980042,
        -0.06054121255874634,
        -0.1207810640335083,
        0.04250967502593994,
        0.1866120994091034,
        0.19549435377120972,
        0.11478137969970703,
        -0.18398287892341614,
        -0.13417619466781616,
        -0.05492785573005676,
        -0.04608103632926941,
        0.020561933517456055,
        -0.22949287295341492
      ]
    ],
    "experts.1.up_proj.weight": [
      [
        0.07781118154525757,
        -0.19071802496910095,
        -0.1581861674785614,
        -0.20784562826156616,
        0.21782991290092468,
        -0.23673495650291443,
        0.18859168887138367,
        -0.00840422511100769,
        -0.02907469868659973,
        0.1563696265220642,
        -0.023106902837753296,
        0.15678852796554565,
        0.18075373768806458,
        -0.21705251932144165,
        0.0961959958076477,
        0.04719474911689758
      ],
      [
        0.05375292897224426,
        0.03649786114692688,
        0.06838274002075195,
        -0.12026670575141907,
        -0.03198528289794922,
        0.23752999305725098,
        0.16796237230300903,
        -0.009392112493515015,
        -0.23513272404670715,
        0.010956943035125732,
        -0.17024338245391846,
        0.20329788327217102,
        -0.15177184343338013,
        -0.018050402402877808,
        -0.055485665798187256,
        0.04448845982551575
      ],
      [
        0.23525691032409668,
        0.023754805326461792,
        0.14479100704193115,
        0.19405540823936462,
        0.2018277943134308,
        -0.0863378643989563,
        -0.05591416358947754,
        0.12048444151878357,
        -0.06821691989898682,
        0.11706599593162537,
        -0.05461692810058594,
        -0.16956308484077454,
        0.10176083445549011,
        0.038329511880874634,
        0.11146208643913269,
        0.24837151169776917
      ],
      [
        0.17068323493003845,
        0.23699527978897095,
        0.013380706310272217,
        -0.21505314111709595,
        -0.17538180947303772,
        -0.15529343485832214,
        -0.22031208872795105,
        -0.12531188130378723,
        -0.23014193773269653,
        -0.2306538224220276,
        -0.1493886411190033,
        -0.24645847082138062,
        -0.15345311164855957,
        0.09532716870307922,
        0.20851320028305054,
        -0.07436570525169373
      ],
      [
        -0.07271969318389893,
        0.13348832726478577,
        -0.12334272265434265,
        -0.1182081401348114,
        0.1540323793888092,
        -0.21782541275024414,
        0.030568689107894897,
        0.22084549069404602,
        0.0428716242313385,
        0.06798595190048218,
        -0.14559778571128845,
        -0.0034491419792175293,
        0.013746112585067749,
        0.06135857105255127,
        0.0971364974975586,
        0.21723195910453796
      ],
      [
        -0.19082486629486084,
        0.007493823766708374,
        -0.12490907311439514,
        -0.19776597619056702,
        -0.02001941204071045,
        -0.22005921602249146,
        0.1744748055934906,
        0.02895370125770569,
        -0.13473951816558838,
        0.1306447684764862,
        -0.23660698533058167,
        -0.0966998040676117,
        -0.048704683780670166,
        -0.21243757009506226,
        -0.15897208452224731,
        -0.040804654359817505
      ],
      [
        0.18969115614891052,
        0.24141356348991394,
        0.1590656042098999,
        -0.14928099513053894,
        -0.1635552942752838,
        0.2181732952594757,
        0.08842936158180237,
        0.0066419243812561035,
        0.03383302688598633,
        -0.20092418789863586,
        -0.08347135782241821,
        0.24065452814102173,
        -0.06165805459022522,
        -0.012541025876998901,
        -0.2075827717781067,
        -0.13985177874565125
      ],
      [
        -0.0051048994064331055,
        -0.15528985857963562,
        -0.031002402305603027,
        0.1017397940158844,
        -0.24454432725906372,
        0.07425302267074585,
        -0.16530203819274902,
        -0.12201276421546936,
        0.09597742557525635,
        0.19878005981445312,
        -0.0683271586894989,
        -0.10264226794242859,
        -0.2260589599609375,
        -0.12891441583633423,
        -0.21890923380851746,
        -0.05721762776374817
      ]
    ],
    "experts.1.down_proj.weight": [
      [
        0.07214448601007462,
        -0.3312355875968933,
        0.30869224667549133,
        0.22181616723537445,
        -0.34610962867736816,
        -0.1688687652349472,
        0.11531326919794083,
        -0.07264093309640884
      ],
      [
        -0.03852900490164757,
        -0.15963488817214966,
        0.28398099541664124,
        -0.1976357102394104,
        0.29319360852241516,
        0.022812064737081528,
        0.07107193768024445,
        0.27581825852394104
      ],
      [
        -0.05825343355536461,
        -0.20129325985908508,
        -0.05718168243765831,
        0.2867506742477417,
        -0.26233214139938354,
        0.08024970442056656,
        -0.3474692404270172,
        0.18536879122257233
      ],
      [
        0.13062657415866852,
        0.014987925067543983,
        0.15174268186092377,
        0.0003976555017288774,
        0.19563977420330048,
        -0.2798801064491272,
        -0.051920194178819656,
        0.156841441988945
      ],
      [
        0.35207441449165344,
        0.1800970584154129,
        -0.25709497928619385,
        0.27191680669784546,
        -0.07884179055690765,
        -0.07548875361680984,
        -0.32134810090065,
        -0.055654365569353104
      ],
      [
        0.2500777840614319,
        0.04930119216442108,
        -0.20592856407165527,
        0.10882800817489624,
        -0.11336490511894226,
        0.3227921426296234,
        -0.3068682849407196,
        -0.11167886108160019
      ],
      [
        -0.3413817882537842,
        -0.13923999667167664,
        0.11145687848329544,
        0.3403356671333313,
        0.0593779981136322,
        0.34660905599594116,
        0.06917347013950348,
        0.20418980717658997
      ],
      [
        0.28343039751052856,
        0.29554352164268494,
        -0.1978922188282013,
        0.3250534236431122,
        0.2141704261302948,
        -0.16531413793563843,
        -0.16871686279773712,
        -0.2965415418148041
      ],
      [
        0.0887904241681099,
        -0.2865724265575409,
        0.14934967458248138,
        0.11165133863687515,
        -0.3071679472923279,
        0.09634360671043396,
        -0.028754686936736107,
        0.1615094542503357
      ],
      [
        0.20286525785923004,
        -0.3514833450317383,
        0.324243426322937,
        0.2965047061443329,
        0.14067311584949493,
        -0.32313403487205505,
        -0.12629660964012146,
        -0.10246291011571884
      ],
      [
        -0.09086249023675919,
        0.1993769258260727,
        0.12854160368442535,
        0.28007760643959045,
        -0.13241393864154816,
        0.11898476630449295,
        0.12579257786273956,
        -0.2943653166294098
      ],
      [
        -0.34295380115509033,
        -0.1834549903869629,
        0.24202413856983185,
        -0.3328562378883362,
        -0.3077448308467865,
        0.1980608105659485,
        0.1907522976398468,
        0.29075971245765686
      ],
      [
        -0.2669111490249634,
        -0.25876563787460327,
        0.1813681721687317,
        0.3074606955051422,
        0.2115447223186493,
        0.05538487806916237,
        0.11652225255966187,
        0.3355669677257538
      ],
      [
        -0.22811417281627655,
        -0.16051740944385529,
        0.24729891121387482,
        -0.2419152408838272,
        -0.1949537843465805,
        0.2580908238887787,
        0.11155389994382858,
        0.11422251164913177
      ],
      [
        -0.14985020458698273,
        -0.004879214335232973,
        0.3235836327075958,
        -0.21220983564853668,
        0.002779711037874222,
        0.16814982891082764,
        -0.24407778680324554,
        0.34336286783218384
      ],
      [
        -0.17663900554180145,
        -0.08490090817213058,
        -0.09566103667020798,
        -0.23039621114730835,
        -0.3469294309616089,
        0.19935163855552673,
        0.09392998367547989,
        -0.33113837242126465
      ]
    ],
    "experts.2.gate_proj.weight": [
      [
        -0.16090670228004456,
        0.24709200859069824,
        0.095558762550354,
        0.10031116008758545,
        -0.14957451820373535,
        -0.1095990240573883,
        -0.037738531827926636,
        -0.04571998119354248,
        -0.1713120937347412,
        0.020596235990524292,
        0.02484700083732605,
        -0.03165525197982788,
        0.034657955169677734,
        -0.099087655544281,
        0.06506296992301941,
        0.09428510069847107
      ],
      [
        -0.13168475031852722,
        -0.2478947639465332,
        0.13085860013961792,
        0.05963417887687683,
        -0.12714698910713196,
        0.24092549085617065,
        -0.11306199431419373,
        0.16893669962882996,
        0.12683212757110596,
        -0.20960202813148499,
        0.16123533248901367,
        -0.22986823320388794,
        -0.13850367069244385,
        -0.04167872667312622,
        -0.16851162910461426,
        0.24422746896743774
      ],
      [
        -0.05014491081237793,
        0.099297434091568,
        -0.22322797775268555,
        0.14391660690307617,
        -0.07769593596458435,
        -0.19016781449317932,
        0.036555737257003784,
        0.12111544609069824,
        0.2163492739200592,
        -0.15269815921783447,
        -0.12302607297897339,
        0.04806572198867798,
        0.06781530380249023,
        0.09611806273460388,
        0.13721880316734314,
        -0.05668842792510986
      ],
      [
        0.13889241218566895,
        0.18432289361953735,
        -0.06530538201332092,
        0.17786431312561035,
        0.12214487791061401,
        0.22051319479942322,
        -0.14206847548484802,
        -0.12345224618911743,
        -0.07228472828865051,
        0.012681573629379272,
        0.15004974603652954,
        -0.1427156627178192,
        0.1251634955406189,
        -0.08959534764289856,
        0.15102732181549072,
        -0.011869311332702637
      ],
      [
        -0.219021737575531,
        -0.13756147027015686,
        -0.1809380054473877,
        0.12399062514305115,
        -0.16763705015182495,
        -0.02082955837249756,
        0.05393895506858826,
        -0.13709867000579834,
        0.07211750745773315,
        -0.24410584568977356,
        -0.1788771152496338,
        -0.22653084993362427,
        -0.07561933994293213,
        -0.09107434749603271,
        0.035798341035842896,
        -0.046228617429733276
      ],
      [
        0.11752051115036011,
        0.22919884324073792,
        0.08969777822494507,
        -0.09849187731742859,
        -0.23409640789031982,
        0.0905504822731018,
        -0.12386447191238403,
        0.1272190809249878,
        0.16712123155593872,
        0.09643012285232544,
        0.23457768559455872,
        0.23744910955429077,
        0.05293497443199158,
        -0.1821591854095459,
        0.2233603298664093,
        -0.11862394213676453
      ],
      [
        -0.11808839440345764,
        0.20919466018676758,
        0.1937025785446167,
        0.07553783059120178,
        0.015670955181121826,
        -0.21029147505760193,
        -0.025951027870178223,
        0.23978158831596375,
        0.06366470456123352,
        0.021404504776000977,
        -0.05191275477409363,
        -0.08719557523727417,
        0.1490056812763214,
        0.015417128801345825,
        0.16264355182647705,
        -0.044249653816223145
      ],
      [
        0.10922729969024658,
        0.10319247841835022,
        0.03986603021621704,
        0.15709325671195984,
        0.1566614806652069,
        0.23173081874847412,
        0.19219398498535156,
        -0.0639241635799408,
        -0.21165505051612854,
        0.04570436477661133,
        -0.0021820664405822754,
        -0.06520634889602661,
        -0.04186367988586426,
        0.011758208274841309,
        0.1824074685573578,
        0.07793530821800232
      ]
    ],
    "experts.2.up_proj.weight": [
      [
        -0.08877357840538025,
        -0.10280624032020569,
        -0.061907827854156494,
        -0.09662574529647827,
        0.22480571269989014,
        0.13241133093833923,
        0.22574391961097717,
        0.0007984042167663574,
        0.05041772127151489,
        0.08669117093086243,
        -0.23663827776908875,
        0.02232414484024048,
        -0.016722500324249268,
        -0.14016351103782654,
        -0.19398683309555054,
        0.22131860256195068
      ],
      [
        0.20326650142669678,
        0.11586716771125793,
        0.2385624349117279,
        -0.10145196318626404,
        -0.0431806743144989,
        0.09465464949607849,
        -0.041306644678115845,
        -0.0490587055683136,
        -0.206640362739563,
        0.0671653151512146,
        -0.15108180046081543,
        0.009091556072235107,
        0.243743896484375,
        -0.07695382833480835,
        -0.07879793643951416,
        0.15082821249961853
      ],
      [
        -0.09191331267356873,
        -0.0214693546295166,
        0.23343461751937866,
        -0.10249343514442444,
        -0.17885255813598633,
        -0.13991093635559082,
        -0.06931141018867493,
        -0.11862468719482422,
        -0.12973293662071228,
        0.10098612308502197,
        0.042484432458877563,
        -0.0800153911113739,
        -0.19422784447669983,
        -0.07871496677398682,
        -0.10550978779792786,
        -0.08135473728179932
      ],
      [
        -0.225530743598938,
        0.053857266902923584,
        -0.18368089199066162,
        -0.19469979405403137,
        -0.2042582929134369,
        0.10434591770172119,
        -0.15050667524337769,
        -0.10318771004676819,
        0.1959601640701294,
        0.1327410638332367,
        0.14334779977798462,
        -0.2373766303062439,
        -0.17927494645118713,
        -0.09437775611877441,
        0.20652440190315247,
        0.025575101375579834
      ],
      [
        -0.18697428703308105,
        0.0015654563903808594,
        -0.19416770339012146,
        -0.05477482080459595,
        -0.0687437653541565,
        0.2164154052734375,
        0.07743418216705322,
        -0.04359278082847595,
        0.04223218560218811,
        -0.07216638326644897,
        0.09822508692741394,
        0.09889096021652222,
        0.06713652610778809,
        -0.09744423627853394,
        0.21328768134117126,
        -0.03609248995780945
      ],
      [
        -0.09732916951179504,
        0.15657851099967957,
        0.2037641704082489,
        0.2487899363040924,
        0.07406458258628845,
        -0.08522346615791321,
        0.1269730031490326,
        0.21448862552642822,
        -0.2452085316181183,
        -0.03097173571586609,
        -0.17049136757850647,
        0.046589940786361694,
        0.1033962070941925,
        -0.05164697766304016,
        -0.020914286375045776,
        0.11252769827842712
      ],
      [
        -0.04201743006706238,
        -0.20994487404823303,
        0.2000339925289154,
        -0.12582862377166748,
        -0.027464628219604492,
        0.023581594228744507,
        -0.01502421498298645,
        -0.23517149686813354,
        0.11469998955726624,
        -0.11355787515640259,
        -0.12966489791870117,
        0.05972886085510254,
        -0.13046550750732422,
        -0.11553990840911865,
        -0.0842374861240387,
        -0.09391939640045166
      ],
      [
        -0.1044093668460846,
        -0.06742146611213684,
        0.06496894359588623,
        -0.20230448246002197,
        -0.15132007002830505,
        0.0036478638648986816,
        0.0347670316696167,
        0.1380731165409088,
        -0.1756109893321991,
        0.07979923486709595,
        0.14209744334220886,
        0.1388150453567505,
        -0.23285537958145142,
        -0.09540104866027832,
        -0.21489140391349792,
        -0.1582028567790985
      ]
    ],
    "experts.2.down_proj.weight": [
      [
        0.1969231814146042,
        -0.0527922548353672,
        0.1501581370830536,
        -0.20753806829452515,
        0.05372593551874161,
        -0.21384955942630768,
        0.17673850059509277,
        -0.15463683009147644
      ],
      [
        -0.08865673840045929,
        -0.3067539930343628,
        0.0011679735034704208,
        0.3356919288635254,
        0.1716070920228958,
        -0.1886352151632309,
        0.0047548389993608,
        -0.038766585290431976
      ],
      [
        -0.2846367061138153,
        0.2772180736064911,
        0.005699518136680126,
        0.07445729523897171,
        -0.14277510344982147,
        -0.16543439030647278,
        0.05829726532101631,
        0.13071255385875702
      ],
      [
        0.07930132001638412,
        -0.17039330303668976,
        0.3432641923427582,
        -0.052044615149497986,
        -0.21652142703533173,
        -0.16536138951778412,
        0.348045289516449,
        1.702732697594911e-05
      ],
      [
        -0.047992825508117676,
        -0.1471354067325592,
        -0.09268239140510559,
        -0.29777273535728455,
        -0.2809630334377289,
        0.20693106949329376,
        0.30244705080986023,
        0.33739614486694336
      ],
      [
        -0.2552451491355896,
        0.19122403860092163,
        -0.21883772313594818,
        0.21091589331626892,
        0.25510796904563904,
        0.27360469102859497,
        0.25457656383514404,
        0.22117355465888977
      ],
      [
        0.006881442386657,
        0.16245156526565552,
        -0.12649111449718475,
        0.15394945442676544,
        -0.11363274604082108,
        -0.0059366365894675255,
        -0.3077253997325897,
        -0.09244523197412491
      ],
      [
        -0.18592415750026703,
        -0.11926091462373734,
        -0.22577442228794098,
        -0.31800153851509094,
        0.02302216738462448,
        0.22944879531860352,
        0.3219985365867615,
        0.20631754398345947
      ],
      [
        -0.18325993418693542,
        -0.3496677279472351,
        0.13410769402980804,
        0.19810089468955994,
        -0.30352982878685,
        0.12677931785583496,
        0.2989213466644287,
        0.021417047828435898
      ],
      [
        -0.21300135552883148,
        0.2898700535297394,
        0.15097291767597198,
        0.23412346839904785,
        -0.2391030341386795,
        0.2057488113641739,
        -0.24150300025939941,
        0.34983906149864197
      ],
      [
        -0.14980047941207886,
        0.21303963661193848,
        0.07079607993364334,
        0.09369534999132156,
        -0.05421917885541916,
        0.14521688222885132,
        -0.14735111594200134,
        -0.33325210213661194
      ],
      [
        -0.13583630323410034,
        0.27702271938323975,
        -0.09307987987995148,
        0.11112833768129349,
        -0.13071802258491516,
        0.2652178108692169,
        0.2115982472896576,
        0.12480916827917099
      ],
      [
        -0.1807229369878769,
        -0.2888990342617035,
        0.013311070390045643,
        -0.20741483569145203,
        0.2906893789768219,
        -0.33975622057914734,
        0.15799179673194885,
        0.3524623215198517
      ],
      [
        0.17706957459449768,
        0.12055418640375137,
        -0.3401702046394348,
        0.340080589056015,
        -0.0604744479060173,
        -0.33036327362060547,
        0.3490147590637207,
        -0.1438717246055603
      ],
      [
        -0.02501305751502514,
        0.323600172996521,
        -0.24508345127105713,
        -0.25013548135757446,
        0.057493906468153,
        -0.04732450470328331,
        0.08143811672925949,
        -0.29652708768844604
      ],
      [
        0.01057359017431736,
        -0.15724630653858185,
        -0.1738099753856659,
        -0.3237265348434448,
        0.1874604970216751,
        0.06810728460550308,
        -0.29890933632850647,
        0.28056296706199646
      ]
    ],
    "experts.3.gate_proj.weight": [
      [
        0.07540521025657654,
        0.046390801668167114,
        -0.14678409695625305,
        0.03770112991333008,
        0.24088504910469055,
        0.17147111892700195,
        -0.19471755623817444,
        0.22820529341697693,
        0.019377440214157104,
        0.12024128437042236,
        0.1941690742969513,
        0.2131272852420807,
        -0.19488370418548584,
        0.21891596913337708,
        -0.1697937250137329,
        0.018741518259048462
      ],
      [
        -0.17469090223312378,
        -0.05480831861495972,
        -0.01136067509651184,
        -0.029908835887908936,
        -0.03949397802352905,
        0.019717633724212646,
        0.24660468101501465,
        0.14525288343429565,
        0.13986748456954956,
        0.10006186366081238,
        0.19354528188705444,
        -0.011537253856658936,
        0.01987805962562561,
        0.05144926905632019,
        -0.2180326282978058,
        -0.20138922333717346
      ],
      [
        0.030650347471237183,
        -0.09781256318092346,
        -0.004587441682815552,
        -0.057364702224731445,
        0.03891569375991821,
        0.16265389323234558,
        -0.08291047811508179,
        0.2002151608467102,
        0.19739043712615967,
        -0.19187453389167786,
        -0.19305655360221863,
        -0.20226871967315674,
        -0.1370050609111786,
        -0.09731906652450562,
        -0.018817365169525146,
        -0.060798048973083496
      ],
      [
        -0.12631213665008545,
        -0.07942339777946472,
        -0.09043613076210022,
        0.24525955319404602,
        -0.09265720844268799,
        -0.17900022864341736,
        0.10392439365386963,
        -0.014440387487411499,
        0.1913909912109375,
        0.15620815753936768,
        0.22968220710754395,
        -0.18308988213539124,
        0.16071584820747375,
        0.20980969071388245,
        -0.1234578788280487,
        0.22979497909545898
      ],
      [
        0.18741074204444885,
        0.00273779034614563,
        0.12053811550140381,
        -0.08740538358688354,
        -0.21804594993591309,
        0.06319501996040344,
        0.07453131675720215,
        -0.16338974237442017,
        0.12124991416931152,
        -0.21355566382408142,
        0.21515601873397827,
        0.24209758639335632,
        0.0680646002292633,
        -0.1568571925163269,
        0.12166780233383179,
        0.04260393977165222
      ],
      [
        0.06797969341278076,
        0.08216333389282227,
        0.1903388798236847,
        -0.10745897889137268,
        -0.05623626708984375,
        0.06817647814750671,
        0.027240276336669922,
        0.20159441232681274,
        -0.1313096284866333,
        -0.009104162454605103,
        0.046713292598724365,
        -0.06639724969863892,
        0.17042917013168335,
        0.027345389127731323,
        -0.23105749487876892,
        -0.02708396315574646
      ],
      [
        -0.11338922381401062,
        0.024292796850204468,
        -0.029053986072540283,
        -0.24798354506492615,
        -0.045556336641311646,
        -0.023944824934005737,
        -0.07371962070465088,
        0.22969511151313782,
        -0.05454978346824646,
        0.1606042981147766,
        0.06192943453788757,
        -0.21103328466415405,
        0.058746516704559326,
        0.20718389749526978,
        -0.16352516412734985,
        -0.1615937352180481
      ],
      [
        0.24471226334571838,
        0.20087748765945435,
        -0.13947349786758423,
        0.15043625235557556,
        -0.031983017921447754,
        -0.24648234248161316,
        0.018783360719680786,
        0.0807735025882721,
        -0.07499021291732788,
        0.08697086572647095,
        -0.21377521753311157,
        0.17325398325920105,
        0.2131335735321045,
        0.13786667585372925,
        0.042372822761535645,
        0.08233723044395447
      ]
    ],
    "experts.3.up_proj.weight": [
      [
        -0.18088695406913757,
        -0.06246834993362427,
        -0.023866891860961914,
        -0.13912153244018555,
        -0.18465501070022583,
        0.16815438866615295,
        0.16966131329536438,
        -0.22704705595970154,
        0.07955297827720642,
        0.1017005443572998,
        0.23749208450317383,
        0.14463841915130615,
        0.2298341691493988,
        -0.0818474292755127,
        0.17509660124778748,
        0.20335033535957336
      ],
      [
        -0.2360820174217224,
        -0.20067667961120605,
        0.05060136318206787,
        0.13650944828987122,
        -0.12420326471328735,
        0.027533620595932007,
        -0.0003629326820373535,
        0.06327691674232483,
        -0.1343373954296112,
        0.14100974798202515,
        0.16625234484672546,
        -0.1734645664691925,
        0.002421855926513672,
        0.0006936490535736084,
        0.08027893304824829,
        0.2328961193561554
      ],
      [
        0.07331585884094238,
        -0.05680549144744873,
        0.22453323006629944,
        -0.0951332151889801,
        -0.07259294390678406,
        0.017068833112716675,
        -0.19037720561027527,
        0.02720433473587036,
        -0.1696188747882843,
        0.025705158710479736,
        0.02395188808441162,
        0.034605175256729126,
        -0.2108238935470581,
        -0.23744606971740723,
        0.11502933502197266,
        0.21439898014068604
      ],
      [
        -0.22184309363365173,
        0.092598557472229,
        -0.18403038382530212,
        0.01567283272743225,
        0.23258942365646362,
        0.18965479731559753,
        -0.18278494477272034,
        0.1546429693698883,
        0.13057929277420044,
        -0.0003834664821624756,
        0.2421816885471344,
        -0.0992937982082367,
        -0.05817896127700806,
        -0.12635353207588196,
        0.035974204540252686,
        0.06619668006896973
      ],
      [
        0.019920051097869873,
        -0.14065927267074585,
        -0.11254161596298218,
        0.08503812551498413,
        -0.21920660138130188,
        -0.038933634757995605,
        -0.005537897348403931,
        -0.10129097104072571,
        0.09097951650619507,
        0.01611343026161194,
        0.17551615834236145,
        -0.022202879190444946,
        -0.1577846109867096,
        0.1766379475593567,
        0.03491219878196716,
        -0.07159954309463501
      ],
      [
        -0.16477569937705994,
        0.05859723687171936,
        -0.23843812942504883,
        0.06584444642066956,
        0.12361118197441101,
        -0.21930012106895447,
        -0.16366809606552124,
        -0.17973145842552185,
        0.21012663841247559,
        0.21253016591072083,
        0.01565021276473999,
        0.23470145463943481,
        -0.08357599377632141,
        -0.2427055537700653,
        0.08732372522354126,
        0.08856713771820068
      ],
      [
        0.24509558081626892,
        -7.236003875732422e-05,
        0.191599041223526,
        0.15324094891548157,
        0.18094220757484436,
        -0.24808302521705627,
        0.20586448907852173,
        -0.2131132185459137,
        0.22412776947021484,
        -0.010360151529312134,
        -0.22155427932739258,
        0.06952318549156189,
        -0.050886690616607666,
        -0.22454833984375,
        -0.0906345546245575,
        0.025776296854019165
      ],
      [
        0.19471165537834167,
        -0.07685741782188416,
        0.1484919786453247,
        0.03130713105201721,
        0.008426964282989502,
        0.047836244106292725,
        -0.16406717896461487,
        -0.20779955387115479,
        -0.07855290174484253,
        -0.23296350240707397,
        -0.11658763885498047,
        0.011501461267471313,
        -0.16465231776237488,
        -0.10369899868965149,
        -0.04492160677909851,
        -0.0288008451461792
      ]
    ],
    "experts.3.down_proj.weight": [
      [
        -0.19516663253307343,
        0.016988594084978104,
        -0.04962491989135742,
        0.10111471265554428,
        0.015969103202223778,
        -0.1765538603067398,
        -0.1217227503657341,
        -0.004074967931956053
      ],
      [
        -0.22061210870742798,
        0.02767791971564293,
        -0.024962903931736946,
        0.13717113435268402,
        0.08367396891117096,
        0.26459354162216187,
        -0.011655036360025406,
        -0.26124241948127747
      ],
      [
        0.15804153680801392,
        -0.23894476890563965,
        -0.04859674721956253,
        -0.11448154598474503,
        -0.13415387272834778,
        -0.13080906867980957,
        0.3248874545097351,
        0.2023940533399582
      ],
      [
        0.09798286855220795,
        0.33197128772735596,
        -0.32039785385131836,
        0.05705203860998154,
        0.2263365387916565,
        0.23486195504665375,
        -0.28137677907943726,
        0.12582595646381378
      ],
      [
        -0.20141439139842987,
        -0.013814683072268963,
        -0.07377607375383377,
        -0.2952045202255249,
        -0.3372596800327301,
        -0.2326020449399948,
        0.1604321002960205,
        0.16172786056995392
      ],
      [
        -0.3075079023838043,
        -0.1327742487192154,
        0.005775087513029575,
        -0.30567607283592224,
        0.1992112547159195,
        0.3202247619628906,
        0.06253007799386978,
        -0.26269540190696716
      ],
      [
        0.08244382590055466,
        0.12834469974040985,
        0.2799587845802307,
        -0.18811511993408203,
        -0.3167519271373749,
        0.15533389151096344,
        0.022010939195752144,
        -0.11519702523946762
      ],
      [
        -0.14814676344394684,
        -0.1822977215051651,
        0.2862004041671753,
        -0.06100178882479668,
        0.25498518347740173,
        0.3155992925167084,
        0.044786758720874786,
        0.07531308382749557
      ],
      [
        -0.02407866343855858,
        0.24282589554786682,
        -0.318582683801651,
        0.14060218632221222,
        -0.05760403722524643,
        0.1614382266998291,
        -0.001574732712469995,
        -0.13090883195400238
      ],
      [
        -0.03816607967019081,
        0.1909162849187851,
        -0.2455533891916275,
        -0.22348079085350037,
        -0.07919468730688095,
        -0.12824249267578125,
        0.1388896256685257,
        0.2379307597875595
      ],
      [
        -0.03786506503820419,
        0.3343108296394348,
        -0.14772166311740875,
        -0.19839979708194733,
        -0.1582837551832199,
        -0.24358850717544556,
        -0.2478175163269043,
        -0.3150215446949005
      ],
      [
        -0.3133470118045807,
        0.09227693825960159,
        0.21561594307422638,
        0.3319326341152191,
        0.30115583539009094,
        -0.020362447947263718,
        0.06860584020614624,
        -0.21153797209262848
      ],
      [
        0.13665583729743958,
        -0.33900150656700134,
        0.16676154732704163,
        0.0648471787571907,
        0.10864846408367157,
        0.12945298850536346,
        -0.16231805086135864,
        0.3033864200115204
      ],
      [
        0.16873423755168915,
        0.23224733769893646,
        0.04669681191444397,
        0.2220267653465271,
        0.23794180154800415,
        0.1602427363395691,
        0.2693259119987488,
        -0.06412676721811295
      ],
      [
        0.23247413337230682,
        0.08145838975906372,
        0.21273165941238403,
        0.34436047077178955,
        0.08005759865045547,
        -0.13122732937335968,
        -0.03517719358205795,
        0.09953534603118896
      ],
      [
        0.059612374752759933,
        -0.09658021479845047,
        0.2770155966281891,
        0.21241745352745056,
        -0.2196110039949417,
        -0.028808044269680977,
        -0.03393891826272011,
        -0.2215828001499176
      ]
    ],
    "experts.4.gate_proj.weight": [
      [
        0.03646373748779297,
        -0.07674822211265564,
        -0.1290653645992279,
        -0.08038675785064697,
        -0.08913713693618774,
        0.23916000127792358,
        0.095892995595932,
        0.24602830410003662,
        0.06854888796806335,
        0.05660781264305115,
        0.10277339816093445,
        0.04290813207626343,
        -0.19619286060333252,
        -0.14783838391304016,
        -0.0605696439743042,
        0.0037583112716674805
      ],
      [
        0.09417861700057983,
        0.09626206755638123,
        0.19832834601402283,
        0.050893187522888184,
        -0.08532330393791199,
        -0.18800657987594604,
        -0.18310266733169556,
        -0.1493343710899353,
        0.07540088891983032,
        0.13506802916526794,
        0.21872815489768982,
        -0.07907792925834656,
        -0.019720733165740967,
        -0.07424086332321167,
        -0.0009135007858276367,
        0.08025035262107849
      ],
      [
        -0.005492866039276123,
        0.011573702096939087,
        0.03167179226875305,
        0.09310457110404968,
        -0.07585033774375916,
        -0.14907440543174744,
        0.05898115038871765,
        -0.02960139513015747,
        -0.11325699090957642,
        0.10499075055122375,
        0.0022672712802886963,
        -0.036366164684295654,
        -0.12102094292640686,
        -0.03289148211479187,
        -0.21258127689361572,
        0.05687257647514343
      ],
      [
        0.0037516653537750244,
        0.15170910954475403,
        0.016142606735229492,
        0.019988059997558594,
        0.06810325384140015,
        0.19023439288139343,
        -0.11813941597938538,
        0.1492512822151184,
        0.06114038825035095,
        -0.16677919030189514,
        0.08704671263694763,
        -0.1499333679676056,
        -0.07869520783424377,
        -0.11916720867156982,
        -0.17007854580879211,
        0.1968928575515747
      ],
      [
        -0.22345522046089172,
        0.12500375509262085,
        -0.2250029742717743,
        -0.030426502227783203,
        0.01491054892539978,
        0.17772763967514038,
        -0.09047338366508484,
        0.07195687294006348,
        0.038726478815078735,
        0.14709621667861938,
        0.014862895011901855,
        0.09361115097999573,
        -0.15102270245552063,
        -0.17372775077819824,
        0.22276940941810608,
        -0.18216675519943237
      ],
      [
        -0.042559921741485596,
        -0.03022003173828125,
        0.2444700300693512,
        -0.05402839183807373,
        -0.19032609462738037,
        -0.06337472796440125,
        0.12895527482032776,
        0.09907254576683044,
        0.20682302117347717,
        -0.05117923021316528,
        0.11776137351989746,
        -0.235260009765625,
        0.09673494100570679,
        0.11486592888832092,
        0.16127175092697144,
        -0.14336055517196655
      ],
      [
        -0.0667445957660675,
        0.0604824423789978,
        -0.17765367031097412,
        -0.1988702416419983,
        -0.2405107021331787,
        0.01395571231842041,
        0.15524697303771973,
        0.06421497464179993,
        0.015241235494613647,
        0.08710646629333496,
        -0.15710103511810303,
        0.026356488466262817,
        -0.06210589408874512,
        -0.12378591299057007,
        0.21559327840805054,
        -0.1934131681919098
      ],
      [
        0.036637067794799805,
        -0.21967813372612,
        -0.00848168134689331,
        -0.1110905110836029,
        0.08228686451911926,
        -0.1403844952583313,
        0.16000989079475403,
        -0.20286673307418823,
        0.15015891194343567,
        -0.18779486417770386,
        0.1338963508605957,
        -0.10526660084724426,
        -0.0005823969841003418,
        -0.04562586545944214,
        0.16225752234458923,
        0.08193188905715942
      ]
    ],
    "experts.4.up_proj.weight": [
      [
        -0.22030109167099,
        0.022985130548477173,
        -0.17246559262275696,
        0.1868903636932373,
        0.041074931621551514,
        -0.0642952024936676,
        -0.12754234671592712,
        0.08653223514556885,
        -0.14972427487373352,
        0.11856555938720703,
        0.13641881942749023,
        0.1534508466720581,
        0.06530946493148804,
        -0.21884220838546753,
        0.17982926964759827,
        -0.07755586504936218
      ],
      [
        -0.07390895485877991,
        -0.02685973048210144,
        0.18278372287750244,
        0.1922316551208496,
        0.038603007793426514,
        0.11928796768188477,
        -0.23299923539161682,
        0.0005905628204345703,
        -0.22117090225219727,
        0.08508738875389099,
        -0.17811235785484314,
        -0.0891011655330658,
        0.17475780844688416,
        0.23892396688461304,
        -0.1500951051712036,
        -0.13875272870063782
      ],
      [
        0.03096151351928711,
        0.09827631711959839,
        -0.04071807861328125,
        -0.07807257771492004,
        -0.16421091556549072,
        0.10671892762184143,
        0.24494045972824097,
        -0.12101978063583374,
        0.11791592836380005,
        0.1220986545085907,
        0.20094925165176392,
        -0.0284634530544281,
        0.007874459028244019,
        0.18367472290992737,
        0.1580284833908081,
        0.24692678451538086
      ],
      [
        -0.07164251804351807,
        0.09892165660858154,
        0.1745690405368805,
        -0.16970399022102356,
        0.049664705991744995,
        -0.05593818426132202,
        0.1607060730457306,
        -0.11228179931640625,
        0.017534643411636353,
        0.14957767724990845,
        -0.22902923822402954,
        -0.21109053492546082,
        -0.12804600596427917,
        0.16035428643226624,
        0.16763195395469666,
        -0.17074251174926758
      ],
      [
        0.04767182469367981,
        -0.13247022032737732,
        -0.11603817343711853,
        0.21560436487197876,
        0.12075227499008179,
        -0.06837072968482971,
        0.036800384521484375,
        0.048439234495162964,
        0.05856025218963623,
        -0.08556967973709106,
        -0.1472213864326477,
        0.1655159592628479,
        0.03359314799308777,
        0.10463741421699524,
        -0.09468242526054382,
        0.12109237909317017
      ],
      [
        0.181941419839859,
        0.15204337239265442,
        0.06797394156455994,
        0.2459707260131836,
        -0.0005467534065246582,
        0.053224265575408936,
        0.23753246665000916,
        0.24297425150871277,
        -0.10555502772331238,
        0.2252008318901062,
        0.09226500988006592,
        -0.027984410524368286,
        0.21828651428222656,
        -0.12950730323791504,
        0.16243714094161987,
        0.24773603677749634
      ],
      [
        -0.1724255383014679,
        -0.14752322435379028,
        -0.24772852659225464,
        -0.044990599155426025,
        -0.22705090045928955,
        -0.08373048901557922,
        0.07589879631996155,
        0.17671942710876465,
        0.13925880193710327,
        0.1387702226638794,
        0.10371595621109009,
        -0.15505832433700562,
        -0.19849872589111328,
        0.01036342978477478,
        0.23739570379257202,
        0.014076441526412964
      ],
      [
        -0.02150246500968933,
        -0.16968435049057007,
        -0.12395957112312317,
        -0.19271591305732727,
        0.20016708970069885,
        -0.04073241353034973,
        -0.22085216641426086,
        0.026818662881851196,
        0.01814204454421997,
        -0.03088715672492981,
        0.08949097990989685,
        0.13444480299949646,
        -0.23510253429412842,
        -0.19152292609214783,
        -0.012009978294372559,
        -0.23178443312644958
      ]
    ],
    "experts.4.down_proj.weight": [
      [
        -0.3211536705493927,
        0.31215599179267883,
        -0.026891080662608147,
        -0.17479339241981506,
        -0.12127476930618286,
        -0.2760270833969116,
        0.2759009301662445,
        -0.07666410505771637
      ],
      [
        -0.19878113269805908,
        -0.26813942193984985,
        0.20664843916893005,
        -0.04887217655777931,
        -0.037143342196941376,
        -0.09214776009321213,
        -0.17066830396652222,
        0.06289371848106384
      ],
      [
        0.27201351523399353,
        -0.20491254329681396,
        0.01693970337510109,
        -0.26888206601142883,
        -0.16578015685081482,
        0.3103385269641876,
        0.0037070258986204863,
        0.34058472514152527
      ],
      [
        -0.06194402277469635,
        -0.19270221889019012,
        -0.21124400198459625,
        0.3133595287799835,
        -0.2718779444694519,
        0.18554282188415527,
        0.08788709342479706,
        0.10433616489171982
      ],
      [
        0.19948895275592804,
        -0.09249766170978546,
        0.2187659591436386,
        -0.28168395161628723,
        -0.12439469248056412,
        0.2588157057762146,
        0.10492748767137527,
        -0.047083593904972076
      ],
      [
        -0.0825655460357666,
        -0.21588483452796936,
        0.21499288082122803,
        -0.011243050917983055,
        -0.011962076649069786,
        0.0836130678653717,
        0.26090413331985474,
        -0.1803770512342453
      ],
      [
        -0.12176287174224854,
        0.2395787388086319,
        0.1996772289276123,
        -0.17392580211162567,
        -0.34975624084472656,
        0.06558816879987717,
        0.18593162298202515,
        0.08444875478744507
      ],
      [
        0.25078049302101135,
        -0.2805354595184326,
        0.17829203605651855,
        -0.219796821475029,
        0.19898222386837006,
        0.26294273138046265,
        0.11197604238986969,
        0.28605103492736816
      ],
      [
        -0.23304526507854462,
        -0.3162095844745636,
        -0.33994340896606445,
        0.22197194397449493,
        0.12385327368974686,
        -0.2588953971862793,
        0.1712191253900528,
        0.32258644700050354
      ],
      [
        -0.34863319993019104,
        0.2564750611782074,
        0.05422550067305565,
        0.032887861132621765,
        0.318124920129776,
        0.3201744854450226,
        0.14897014200687408,
        0.27935487031936646
      ],
      [
        0.14708684384822845,
        0.05760854482650757,
        -0.31077733635902405,
        0.06603766232728958,
        -0.25153425335884094,
        0.10884714126586914,
        0.06237880885601044,
        0.007942826487123966
      ],
      [
        -0.2417338788509369,
        -0.21432308852672577,
        0.26132461428642273,
        0.17218723893165588,
        0.1864074170589447,
        -0.10535072535276413,
        -0.06088057532906532,
        -0.09060784429311752
      ],
      [
        0.24313631653785706,
        -0.1526246964931488,
        0.22269083559513092,
        0.24377286434173584,
        -0.3233443796634674,
        0.002159014344215393,
        -0.06733548641204834,
        -0.19545221328735352
      ],
      [
        0.15263518691062927,
        -0.04295497015118599,
        0.309538871049881,
        -0.2212904691696167,
        0.1642720103263855,
        -0.3018612861633301,
        -0.17720861732959747,
        0.02411693148314953
      ],
      [
        0.27934011816978455,
        0.1862233579158783,
        -0.2902975380420685,
        0.039161503314971924,
        -0.20841611921787262,
        0.015319367870688438,
        -0.29453587532043457,
        -0.1037231832742691
      ],
      [
        0.24249041080474854,
        -0.324398010969162,
        -0.3370858132839203,
        0.06439772993326187,
        0.04846664145588875,
        -0.06465979665517807,
        0.30872708559036255,
        -0.21287058293819427
      ]
    ],
    "experts.5.gate_proj.weight": [
      [
        -0.15177005529403687,
        -0.18686902523040771,
        -0.04653063416481018,
        -0.06380122900009155,
        0.15468671917915344,
        -0.014037251472473145,
        0.07983839511871338,
        -0.10388916730880737,
        0.20279809832572937,
        0.21075469255447388,
        -0.2238922417163849,
        -0.0642499029636383,
        -0.21212434768676758,
        0.10620671510696411,
        -0.21842080354690552,
        -0.11820295453071594
      ],
      [
        0.24979311227798462,
        -0.2387298047542572,
        0.1844511330127716,
        0.021119773387908936,
        0.19990867376327515,
        -0.12687233090400696,
        0.16420713067054749,
        0.030163437128067017,
        0.019228100776672363,
        0.17063304781913757,
        -0.23763179779052734,
        -0.20136281847953796,
        0.24144086241722107,
        -0.15012413263320923,
        -0.180201917886734,
        -0.012223660945892334
      ],
      [
        -0.08002561330795288,
        -0.03420296311378479,
        -0.16749638319015503,
        0.09020471572875977,
        -0.21512040495872498,
        0.020248234272003174,
        0.14588487148284912,
        0.04803401231765747,
        0.03321745991706848,
        0.03656601905822754,
        -0.07323762774467468,
        -0.047624558210372925,
        -0.10542333126068115,
        -0.16888213157653809,
        -0.13236403465270996,
        0.24714013934135437
      ],
      [
        -0.0418391227722168,
        0.08757400512695312,
        0.17288851737976074,
        -0.01952946186065674,
        -0.13449352979660034,
        -0.16938474774360657,
        -0.0921008288860321,
        0.0892341136932373,
        -0.21053963899612427,
        -0.03052419424057007,
        0.0950966477394104,
        0.20396378636360168,
        0.0752326250076294,
        0.04944166541099548,
        0.1711476743221283,
        0.11552196741104126
      ],
      [
        0.08457842469215393,
        -0.07751163840293884,
        -0.20047470927238464,
        -0.054000526666641235,
        -0.04534095525741577,
        0.01835930347442627,
        -0.02749505639076233,
        0.10107213258743286,
        0.16613751649856567,
        -0.10135507583618164,
        -0.23721516132354736,
        -0.1282649040222168,
        -0.11961910128593445,
        0.1417100429534912,
        -0.16126090288162231,
        -0.023514270782470703
      ],
      [
        -0.052984774112701416,
        -0.15173307061195374,
        0.1133212149143219,
        -0.10413888096809387,
        -0.012933045625686646,
        -0.17577117681503296,
        -0.025214940309524536,
        0.03552144765853882,
        -0.010173201560974121,
        -0.09341192245483398,
        0.07427090406417847,
        -0.06477439403533936,
        -0.1385997235774994,
        -0.184358149766922,
        -0.052957385778427124,
        -0.23616960644721985
      ],
      [
        0.2075049877166748,
        -0.11943194270133972,
        -0.10360455513000488,
        0.023109763860702515,
        0.06480830907821655,
        -0.023573100566864014,
        0.17150571942329407,
        -0.1457374095916748,
        0.08959519863128662,
        -0.0005638301372528076,
        -0.20336776971817017,
        -0.09682372212409973,
        0.06362178921699524,
        0.047760456800460815,
        0.18178385496139526,
        0.16724824905395508
      ],
      [
        -0.1363556981086731,
        -0.10675737261772156,
        -0.05301034450531006,
        -0.17910513281822205,
        -0.06749746203422546,
        -0.2045782208442688,
        0.09508553147315979,
        0.1768898367881775,
        0.019794106483459473,
        -0.17897015810012817,
        -0.18932700157165527,
        -0.09732478857040405,
        0.07271334528923035,
        0.006098002195358276,
        0.045455485582351685,
        0.23562031984329224
      ]
    ],
    "experts.5.up_proj.weight": [
      [
        0.11611050367355347,
        0.05375564098358154,
        -0.0505804717540741,
        0.11826223134994507,
        0.09146013855934143,
        -0.22502556443214417,
        -0.1476772427558899,
        0.00839143991470337,
        0.09486058354377747,
        0.12162572145462036,
        -0.14881965517997742,
        -0.24802857637405396,
        -0.013022899627685547,
        -0.02857932448387146,
        0.07254499197006226,
        -0.06875160336494446
      ],
      [
        0.19113069772720337,
        0.016681045293807983,
        0.1825617253780365,
        -0.1740785837173462,
        0.1000089943408966,
        0.0297890305519104,
        -0.1250370740890503,
        0.12393695116043091,
        -0.2460048496723175,
        0.20211675763130188,
        0.02014702558517456,
        0.024138152599334717,
        0.11561140418052673,
        0.020753085613250732,
        0.10716289281845093,
        0.15905353426933289
      ],
      [
        -0.1951146125793457,
        0.16539010405540466,
        -0.03743469715118408,
        -0.05813726782798767,
        0.05032038688659668,
        0.19553792476654053,
        -0.13590380549430847,
        -0.16848278045654297,
        0.15515181422233582,
        -0.11741697788238525,
        0.08048751950263977,
        -0.03683152794837952,
        0.06881323456764221,
        0.19077876210212708,
        -0.12669974565505981,
        -0.12131589651107788
      ],
      [
        0.12265518307685852,
        0.013688117265701294,
        -0.027514547109603882,
        -0.21959704160690308,
        0.21181458234786987,
        -0.009467720985412598,
        -0.04604685306549072,
        -0.10262247920036316,
        -0.049334555864334106,
        0.12150856852531433,
        -0.005745828151702881,
        0.21380215883255005,
        -0.014433681964874268,
        -0.035864442586898804,
        0.14111289381980896,
        -0.0064688920974731445
      ],
      [
        -0.049898236989974976,
        0.0835566520690918,
        0.19715774059295654,
        0.0623873770236969,
        0.1740795373916626,
        0.1620095670223236,
        0.07069945335388184,
        0.08692213892936707,
        0.0806710422039032,
        0.02593168616294861,
        0.21268409490585327,
        0.23078513145446777,
        0.08899715542793274,
        -0.012484639883041382,
        0.22414851188659668,
        -0.19458013772964478
      ],
      [
        0.1836959719657898,
        0.13245639204978943,
        0.16053402423858643,
        -0.019208908081054688,
        -0.18652448058128357,
        0.17833471298217773,
        -0.10931390523910522,
        0.06577813625335693,
        0.14163628220558167,
        -0.23363140225410461,
        0.016590982675552368,
        -0.08880659937858582,
        0.17743882536888123,
        -0.15917536616325378,
        0.15179243683815002,
        0.1558924913406372
      ],
      [
        0.13792872428894043,
        0.2400030791759491,
        0.03786277770996094,
        -0.22659528255462646,
        0.17846623063087463,
        0.022886693477630615,
        0.004961252212524414,
        -0.2381473183631897,
        -0.05618906021118164,
        -0.12134194374084473,
        0.24485275149345398,
        0.17800721526145935,
        0.1864970624446869,
        0.1712091565132141,
        -0.1549684703350067,
        -0.10736739635467529
      ],
      [
        -0.09783756732940674,
        -0.10022056102752686,
        0.19460803270339966,
        0.08494171500205994,
        0.20033851265907288,
        -0.011694729328155518,
        -0.2228567898273468,
        -0.07253080606460571,
        0.1756986677646637,
        0.15220138430595398,
        0.07739287614822388,
        -0.07333192229270935,
        -0.23334276676177979,
        -0.13433167338371277,
        0.13034510612487793,
        -0.10083943605422974
      ]
    ],
    "experts.5.down_proj.weight": [
      [
        0.1691182255744934,
        0.0965346172451973,
        -0.13579536974430084,
        0.2153416872024536,
        -0.113608218729496,
        -0.011745989322662354,
        -0.1346730887889862,
        -0.3353706896305084
      ],
      [
        0.05700631067156792,
        0.1021660640835762,
        -0.17800754308700562,
        0.21688620746135712,
        -0.31715700030326843,
        -0.3408171832561493,
        -0.21837188303470612,
        -0.12218978255987167
      ],
      [
        -0.039264973253011703,
        -0.06832341104745865,
        0.16135768592357635,
        -0.3102874159812927,
        0.05205987021327019,
        0.006122714839875698,
        0.09338413923978806,
        0.35146036744117737
      ],
      [
        0.21759389340877533,
        -0.19576413929462433,
        -0.28972020745277405,
        -0.08559561520814896,
        -0.1773519068956375,
        0.12349802255630493,
        0.0032410083804279566,
        0.2843713164329529
      ],
      [
        0.1388779580593109,
        -0.06500796973705292,
        0.012151610106229782,
        0.08467108011245728,
        -0.043871454894542694,
        0.28529444336891174,
        -0.2764434814453125,
        0.17232400178909302
      ],
      [
        -0.22537045180797577,
        -0.3097415566444397,
        -0.07258331775665283,
        0.17228829860687256,
        0.24980735778808594,
        0.08872155845165253,
        -0.030557265505194664,
        -0.01981997676193714
      ],
      [
        -0.14332394301891327,
        -0.03172696754336357,
        -0.02442839741706848,
        0.300860732793808,
        0.20691506564617157,
        -0.2829218804836273,
        0.001462537795305252,
        -0.217460036277771
      ],
      [
        -0.05612337589263916,
        -0.28099295496940613,
        0.09191013872623444,
        -0.25493958592414856,
        0.3490353226661682,
        0.2670044004917145,
        -0.2433716207742691,
        -0.33285775780677795
      ],
      [
        0.013794831931591034,
        -0.09869501739740372,
        0.1037915050983429,
        -0.23932527005672455,
        0.14472396671772003,
        -0.30538150668144226,
        -0.1865948885679245,
        -0.1858636438846588
      ],
      [
        0.17108142375946045,
        -0.009256458841264248,
        -0.3397749066352844,
        -0.20192141830921173,
        -0.163616344332695,
        -0.328037291765213,
        0.04527140408754349,
        0.12598447501659393
      ],
      [
        -0.06486914306879044,
        -0.1406947374343872,
        -0.0021441366989165545,
        -0.2808209955692291,
        -0.21527919173240662,
        -0.008063239976763725,
        0.3140887916088104,
        -0.10872061550617218
      ],
      [
        0.175242081284523,
        -0.13914106786251068,
        -0.09411513060331345,
        -0.33656319975852966,
        0.29291367530822754,
        0.3442646861076355,
        -0.00742576876655221,
        0.22463713586330414
      ],
      [
        0.289186030626297,
        0.17561617493629456,
        0.18208681046962738,
        -0.33657950162887573,
        -0.3322237432003021,
        -0.2713664770126343,
        0.11058641970157623,
        -0.3058154284954071
      ],
      [
        -0.26988309621810913,
        -0.1713683307170868,
        -0.3258649706840515,
        0.000476385816000402,
        0.0510064959526062,
        -0.20689959824085236,
        0.23149451613426208,
        -0.13422472774982452
      ],
      [
        -0.09953483939170837,
        0.26936355233192444,
        0.3035438358783722,
        -0.040559809654951096,
        -0.25380823016166687,
        -0.17736679315567017,
        0.04502122104167938,
        0.20725034177303314
      ],
      [
        0.17601467669010162,
        -0.15612296760082245,
        -0.33423757553100586,
        -0.3094111680984497,
        -0.11248521506786346,
        0.004435028415173292,
        -0.15880754590034485,
        -0.2795565128326416
      ]
    ],
    "experts.6.gate_proj.weight": [
      [
        0.026346921920776367,
        -0.19843518733978271,
        -0.19198104739189148,
        -0.20323649048805237,
        -0.06774336099624634,
        0.2208145260810852,
        0.09772983193397522,
        -0.029642254114151,
        0.051452815532684326,
        0.09955227375030518,
        0.0014565587043762207,
        -0.20164358615875244,
        -0.15402814745903015,
        -0.16983819007873535,
        -0.006348073482513428,
        -0.22885042428970337
      ],
      [
        -0.04545527696609497,
        -0.09141799807548523,
        0.24534252285957336,
        0.20320603251457214,
        0.14521342515945435,
        0.014020562171936035,
        -0.08094319701194763,
        0.06376761198043823,
        -0.172732412815094,
        -0.1066260039806366,
        -0.05022135376930237,
        -0.05873867869377136,
        -0.23682555556297302,
        0.09938275814056396,
        0.20587050914764404,
        -0.13789334893226624
      ],
      [
        0.06739157438278198,
        -0.028993576765060425,
        -0.009118109941482544,
        0.014572501182556152,
        0.21664562821388245,
        0.033497631549835205,
        -0.15816926956176758,
        -0.08992838859558105,
        0.1221318244934082,
        0.07801362872123718,
        0.004858911037445068,
        -0.032994240522384644,
        -0.097269207239151,
        -0.0887317955493927,
        -0.13187149167060852,
        0.04096543788909912
      ],
      [
        0.0702105164527893,
        0.1914362609386444,
        -0.056478351354599,
        0.017897188663482666,
        0.16157236695289612,
        0.10874766111373901,
        0.0321219265460968,
        0.07681965827941895,
        0.012976616621017456,
        -0.21444794535636902,
        0.009637773036956787,
        -0.05464473366737366,
        0.22560295462608337,
        0.2256569266319275,
        0.04959765076637268,
        0.22345077991485596
      ],
      [
        -0.12875473499298096,
        0.2172934114933014,
        0.2152462899684906,
        -0.009555250406265259,
        -0.20062735676765442,
        -0.08067408204078674,
        -0.06685683131217957,
        0.004129499197006226,
        -0.22666281461715698,
        0.04633137583732605,
        -0.1039729118347168,
        -0.06401029229164124,
        -0.12912306189537048,
        -0.05278348922729492,
        -0.23218128085136414,
        -0.1325419843196869
      ],
      [
        0.023031234741210938,
        0.16381898522377014,
        0.22718694806098938,
        -0.18911388516426086,
        0.10498028993606567,
        -0.14092394709587097,
        -0.19328925013542175,
        -0.01100882887840271,
        -0.14341166615486145,
        -0.21531158685684204,
        -0.2336341142654419,
        -0.1673370897769928,
        0.2054339349269867,
        0.13942700624465942,
        -0.09896177053451538,
        -0.16733017563819885
      ],
      [
        -0.19231045246124268,
        -0.14763036370277405,
        -0.10287457704544067,
        0.15014731884002686,
        0.08181411027908325,
        -0.0963430404663086,
        0.17210784554481506,
        -0.1553083062171936,
        -0.20367199182510376,
        0.054562538862228394,
        -0.13785022497177124,
        0.07111960649490356,
        0.2118089497089386,
        -0.11822634935379028,
        -0.1744529902935028,
        0.09410002827644348
      ],
      [
        -0.22578677535057068,
        0.22304442524909973,
        -0.1180640459060669,
        0.12086495757102966,
        -0.1987929344177246,
        -0.169217050075531,
        0.027538657188415527,
        0.0888512134552002,
        0.19384878873825073,
        0.20908397436141968,
        -0.014377892017364502,
        -0.032141804695129395,
        0.04132544994354248,
        -0.05807274580001831,
        0.008510202169418335,
        -0.23676207661628723
      ]
    ],
    "experts.6.up_proj.weight": [
      [
        -0.205226868391037,
        0.17131561040878296,
        -0.14608916640281677,
        0.19687137007713318,
        0.02743592858314514,
        0.060896217823028564,
        0.22721940279006958,
        -0.1390475630760193,
        -0.039464473724365234,
        0.04429236054420471,
        0.08541044592857361,
        -0.2433035671710968,
        0.08885464072227478,
        -0.14743149280548096,
        0.032837510108947754,
        0.16913741827011108
      ],
      [
        -0.024903804063796997,
        -0.00790870189666748,
        -0.01867884397506714,
        0.20862063765525818,
        0.1420823633670807,
        0.042042315006256104,
        -0.15045380592346191,
        -0.13575923442840576,
        0.19913870096206665,
        0.17985516786575317,
        0.14475250244140625,
        -0.1949293315410614,
        0.19469818472862244,
        -0.02389797568321228,
        0.18418926000595093,
        0.21713736653327942
      ],
      [
        0.027402758598327637,
        -0.1040295958518982,
        0.23516270518302917,
        -0.1302800178527832,
        0.16335368156433105,
        -0.23972252011299133,
        -0.07862821221351624,
        -0.21796366572380066,
        -0.11214405298233032,
        0.10615476965904236,
        -0.17913201451301575,
        -0.21620100736618042,
        0.17875882983207703,
        0.13345512747764587,
        -0.0027337968349456787,
        -0.1762402057647705
      ],
      [
        -0.06623411178588867,
        -0.08094513416290283,
        0.1543976068496704,
        -0.08177164196968079,
        -0.07200390100479126,
        -0.17721480131149292,
        -0.11774691939353943,
        0.1353621780872345,
        0.16107138991355896,
        0.036321818828582764,
        -0.09379953145980835,
        0.24012267589569092,
        0.0493449866771698,
        -0.09649911522865295,
        -0.08664929866790771,
        -0.03498771786689758
      ],
      [
        0.11852440237998962,
        0.09144189953804016,
        0.18124014139175415,
        -0.011264234781265259,
        0.20677319169044495,
        -0.10154682397842407,
        -0.11513829231262207,
        -0.09232434630393982,
        -0.23455199599266052,
        -0.164110004901886,
        -0.22621870040893555,
        -0.014774411916732788,
        0.0023568570613861084,
        -0.06488552689552307,
        -0.1708458960056305,
        0.2268221378326416
      ],
      [
        -0.08283504843711853,
        0.1191382110118866,
        0.1741025447845459,
        -0.16433921456336975,
        -0.03125578165054321,
        0.14449182152748108,
        0.24233976006507874,
        -0.03154027462005615,
        0.18115580081939697,
        -0.19621655344963074,
        -0.16243484616279602,
        0.20558378100395203,
        -0.023669898509979248,
        0.24698063731193542,
        0.01817929744720459,
        -0.10367727279663086
      ],
      [
        0.23742887377738953,
        0.2186208963394165,
        0.02320149540901184,
        -0.15155133605003357,
        -0.010824233293533325,
        -0.12022921442985535,
        0.1821703016757965,
        0.011580884456634521,
        0.05263036489486694,
        0.15161624550819397,
        0.08281037211418152,
        -0.15606659650802612,
        0.2076810598373413,
        0.15358614921569824,
        -0.15433406829833984,
        0.18902572989463806
      ],
      [
        0.07092586159706116,
        -0.04921221733093262,
        -0.1787908375263214,
        -0.04148072004318237,
        -0.24511083960533142,
        0.1426902413368225,
        0.18106338381767273,
        -0.07197451591491699,
        0.23176240921020508,
        -0.09257283806800842,
        0.04281210899353027,
        -0.17422351241111755,
        -0.010569602251052856,
        0.10105746984481812,
        0.10768362879753113,
        -0.008383125066757202
      ]
    ],
    "experts.6.down_proj.weight": [
      [
        -0.17828364670276642,
        0.2471286803483963,
        0.2340756207704544,
        0.05673842504620552,
        -0.16259069740772247,
        0.07496234029531479,
        0.0009453959646634758,
        0.32300740480422974
      ],
      [
        0.05239405483007431,
        0.02726934850215912,
        0.024168729782104492,
        0.1880936324596405,
        -0.004368436522781849,
        0.3030462861061096,
        0.18419773876667023,
        -0.2671544849872589
      ],
      [
        -4.046097274112981e-06,
        -0.3000985383987427,
        -0.2714613080024719,
        0.06869299709796906,
        0.07945005595684052,
        -0.030940253287553787,
        0.3360392153263092,
        -0.18993304669857025
      ],
      [
        -0.14816917479038239,
        -0.0566200315952301,
        0.0021436307579278946,
        -0.029946809634566307,
        0.31833553314208984,
        -0.14932198822498322,
        -0.18493492901325226,
        0.030387919396162033
      ],
      [
        0.26554763317108154,
        0.08391787111759186,
        0.19047071039676666,
        0.06844273209571838,
        0.30132946372032166,
        0.21235251426696777,
        0.25299176573753357,
        -0.04762012138962746
      ],
      [
        -0.2927052676677704,
        -0.16771309077739716,
        0.12044443935155869,
        0.24803419411182404,
        -0.13813486695289612,
        0.29253679513931274,
        0.05081489309668541,
        0.0014043329283595085
      ],
      [
        0.013783073052763939,
        -0.0624631866812706,
        0.3309926390647888,
        0.015356583520770073,
        0.21655459702014923,
        -0.29840394854545593,
        -0.18215812742710114,
        0.03975236043334007
      ],
      [
        0.282312273979187,
        0.16832228004932404,
        0.06733759492635727,
        -0.3493077754974365,
        0.006646641995757818,
        -0.23338116705417633,
        -0.3018893003463745,
        0.048346102237701416
      ],
      [
        -0.22369511425495148,
        0.3208988904953003,
        -0.19217103719711304,
        0.11393898725509644,
        0.2075226902961731,
        -0.2747948467731476,
        0.18094156682491302,
        -0.04733942449092865
      ],
      [
        0.18319818377494812,
        0.3421458899974823,
        -0.15067224204540253,
        -0.1531253606081009,
        0.2809155583381653,
        0.03931529447436333,
        -0.03526085242629051,
        0.26822975277900696
      ],
      [
        -0.17081721127033234,
        -0.01745709776878357,
        0.2428472638130188,
        0.13817253708839417,
        -0.22868357598781586,
        0.09189437329769135,
        -0.26956209540367126,
        -0.1920054405927658
      ],
      [
        0.2273389995098114,
        -0.09422631561756134,
        -0.1800849288702011,
        0.025060683488845825,
        0.08639796078205109,
        -0.2197747379541397,
        -0.2384234517812729,
        -0.3424055576324463
      ],
      [
        0.09135236591100693,
        -0.22812305390834808,
        0.026943720877170563,
        -0.07907511293888092,
        -0.23117440938949585,
        -0.11281847208738327,
        -0.27177295088768005,
        -0.18714742362499237
      ],
      [
        -0.011020684614777565,
        -0.30225813388824463,
        -0.31007811427116394,
        0.26483288407325745,
        0.03326869755983353,
        -0.15636034309864044,
        -0.01175517775118351,
        0.2621828615665436
      ],
      [
        -0.2949574291706085,
        -0.187448188662529,
        -0.2556687593460083,
        -0.02570367604494095,
        -0.012166783213615417,
        -0.2755261957645416,
        0.2453957200050354,
        -0.2715006470680237
      ],
      [
        0.33009007573127747,
        -0.24337519705295563,
        -0.04845290258526802,
        0.06610985845327377,
        -0.15714649856090546,
        0.3251425325870514,
        -0.24375182390213013,
        -0.019596893340349197
      ]
    ],
    "experts.7.gate_proj.weight": [
      [
        -0.18356525897979736,
        0.06939765810966492,
        0.21314677596092224,
        0.2318965196609497,
        0.029678434133529663,
        -0.1251613199710846,
        0.24296125769615173,
        0.018657594919204712,
        0.16914424300193787,
        -0.12985435128211975,
        -0.11602333188056946,
        -0.2075333297252655,
        0.23003149032592773,
        0.04147106409072876,
        -0.17954733967781067,
        0.02147221565246582
      ],
      [
        -0.10722628235816956,
        0.012489110231399536,
        0.08298075199127197,
        -0.12405869364738464,
        0.04362484812736511,
        -0.1578454077243805,
        0.0481739342212677,
        -0.2413840889930725,
        0.03983786702156067,
        0.24837979674339294,
        0.2302781641483307,
        0.09119528532028198,
        0.18395736813545227,
        0.24306446313858032,
        0.07084232568740845,
        0.08337953686714172
      ],
      [
        0.032508522272109985,
        0.22133243083953857,
        0.21476015448570251,
        -0.1175650954246521,
        -0.010277390480041504,
        -0.1259607970714569,
        0.08970758318901062,
        -0.24224793910980225,
        0.0884670615196228,
        -0.06861209869384766,
        0.09066301584243774,
        0.07802656292915344,
        -0.12440469861030579,
        0.12970265746116638,
        0.10616251826286316,
        -0.21251019835472107
      ],
      [
        0.24943798780441284,
        0.21518829464912415,
        0.15554556250572205,
        -0.02537497878074646,
        0.0885719358921051,
        -0.1352538764476776,
        -0.084949791431427,
        0.11798965930938721,
        0.11129200458526611,
        0.09899631142616272,
        -0.23843443393707275,
        0.207169771194458,
        -0.1044217050075531,
        0.21635404229164124,
        0.20598778128623962,
        0.09266269207000732
      ],
      [
        0.24907249212265015,
        0.14355507493019104,
        0.146621435880661,
        -0.08489304780960083,
        0.2318713665008545,
        0.06552371382713318,
        0.147708922624588,
        -0.05652695894241333,
        0.1810552179813385,
        0.22177553176879883,
        -0.19156283140182495,
        0.20495104789733887,
        -0.1652224063873291,
        -0.17211833596229553,
        -0.2089214026927948,
        0.0722399353981018
      ],
      [
        -0.1877068281173706,
        -0.0941084623336792,
        -0.12567144632339478,
        0.06681632995605469,
        -0.245440274477005,
        -0.11461034417152405,
        0.0018288791179656982,
        0.022450536489486694,
        -0.11290609836578369,
        0.0895659327507019,
        -0.16493850946426392,
        -0.21172243356704712,
        -0.03554123640060425,
        -0.1351620852947235,
        0.1575832962989807,
        -0.17087969183921814
      ],
      [
        -0.02098807692527771,
        0.10383841395378113,
        -0.21893474459648132,
        0.19352996349334717,
        -0.11359378695487976,
        -0.06802907586097717,
        -0.1529284417629242,
        -0.09315943717956543,
        -0.09639739990234375,
        -0.22246921062469482,
        0.08542689681053162,
        -0.0008008778095245361,
        0.2445576786994934,
        0.16866907477378845,
        0.2174835205078125,
        0.07355666160583496
      ],
      [
        0.13136479258537292,
        0.2340961992740631,
        0.20525988936424255,
        -0.19209972023963928,
        -0.05605721473693848,
        -0.2411162257194519,
        0.009457707405090332,
        -0.08829742670059204,
        0.21697914600372314,
        0.0395263135433197,
        0.002751469612121582,
        -0.18083810806274414,
        -0.1961827278137207,
        0.039355963468551636,
        -0.12422052025794983,
        -0.11481311917304993
      ]
    ],
    "experts.7.up_proj.weight": [
      [
        0.1753586232662201,
        -0.1303296685218811,
        -0.11127620935440063,
        0.1919519007205963,
        0.09767469763755798,
        -0.14205187559127808,
        0.07571208477020264,
        0.12603434920310974,
        -0.22205016016960144,
        0.0467018187046051,
        0.05711749196052551,
        -0.009736776351928711,
        0.23970025777816772,
        -0.1652439832687378,
        0.13552913069725037,
        -0.13280412554740906
      ],
      [
        -0.2140265703201294,
        0.170379638671875,
        -0.11993056535720825,
        0.011750280857086182,
        0.13147559762001038,
        -0.20866477489471436,
        -0.2139972448348999,
        0.08511525392532349,
        0.2179814577102661,
        -0.02645397186279297,
        0.1760554313659668,
        0.08785015344619751,
        0.07132568955421448,
        -0.15939298272132874,
        0.23792961239814758,
        0.11451014876365662
      ],
      [
        0.038655877113342285,
        0.17682603001594543,
        -0.21480682492256165,
        0.053870975971221924,
        -0.11768215894699097,
        -0.025386899709701538,
        0.08190825581550598,
        0.11072421073913574,
        0.05735161900520325,
        -0.1934882402420044,
        -0.15645813941955566,
        0.004365146160125732,
        -0.04329782724380493,
        -0.20925357937812805,
        0.24629157781600952,
        0.03144580125808716
      ],
      [
        -0.17763754725456238,
        0.1096464991569519,
        0.10862478613853455,
        -0.1226414144039154,
        0.12536105513572693,
        -0.15508586168289185,
        0.08662030100822449,
        0.23747625946998596,
        0.1650327444076538,
        0.12342223525047302,
        -0.05086281895637512,
        0.04693368077278137,
        0.08724144101142883,
        0.061061710119247437,
        -0.050648033618927,
        0.034881800413131714
      ],
      [
        -0.10125777125358582,
        -0.14131677150726318,
        -0.23070907592773438,
        -0.20382720232009888,
        -0.15692880749702454,
        0.23897254467010498,
        0.05002877116203308,
        -0.2261551320552826,
        -0.12779223918914795,
        0.05839484930038452,
        -0.07482656836509705,
        -0.07076507806777954,
        -0.09387871623039246,
        -0.06105995178222656,
        0.028756797313690186,
        0.014804542064666748
      ],
      [
        0.16062048077583313,
        0.15998584032058716,
        0.20574787259101868,
        -0.007952779531478882,
        -0.11162993311882019,
        0.0008530914783477783,
        -0.16555356979370117,
        0.10228040814399719,
        -0.03016260266304016,
        -0.08006912469863892,
        -0.21195295453071594,
        0.12047910690307617,
        0.13954386115074158,
        0.22805672883987427,
        -0.08856752514839172,
        0.07532763481140137
      ],
      [
        0.009423643350601196,
        -0.15924254059791565,
        -0.15628719329833984,
        0.128021240234375,
        -0.1435808539390564,
        0.18204587697982788,
        0.087339848279953,
        0.08537712693214417,
        0.16464388370513916,
        0.12235400080680847,
        0.10782063007354736,
        0.12971043586730957,
        -0.10609170794487,
        -0.13257035613059998,
        -0.045800358057022095,
        0.13879206776618958
      ],
      [
        0.17495682835578918,
        0.18410298228263855,
        -0.07885918021202087,
        -0.03172117471694946,
        -0.17170500755310059,
        0.15414905548095703,
        -0.16578173637390137,
        -0.10287213325500488,
        0.20644137263298035,
        0.0607532262802124,
        -0.10465788841247559,
        -0.1683429479598999,
        -0.17191851139068604,
        0.20175641775131226,
        -0.2285010814666748,
        0.21603232622146606
      ]
    ],
    "experts.7.down_proj.weight": [
      [
        0.2828304171562195,
        0.021906962618231773,
        -0.02833903394639492,
        0.2749662399291992,
        0.15590882301330566,
        0.33428868651390076,
        0.2856047749519348,
        -0.23184601962566376
      ],
      [
        0.2181846648454666,
        0.17830750346183777,
        -0.25102725625038147,
        0.169801726937294,
        -0.18363988399505615,
        -0.21064430475234985,
        0.006595897488296032,
        -0.04344514012336731
      ],
      [
        -0.09506398439407349,
        -0.23186296224594116,
        0.1934071183204651,
        0.3525174558162689,
        -0.07834099978208542,
        -0.23821507394313812,
        -0.018230702728033066,
        -0.3071707785129547
      ],
      [
        -0.28710508346557617,
        -0.11777649819850922,
        0.22213929891586304,
        -0.27086225152015686,
        -0.056421227753162384,
        -0.18358972668647766,
        -0.3255481421947479,
        -0.07958867400884628
      ],
      [
        -0.020594846457242966,
        -0.059446781873703,
        0.25849539041519165,
        0.14162015914916992,
        0.22012050449848175,
        0.13848303258419037,
        0.03709394484758377,
        0.19189435243606567
      ],
      [
        -0.22554923593997955,
        0.18014730513095856,
        0.16840232908725739,
        -0.15005044639110565,
        -0.012134161777794361,
        -0.2674548327922821,
        -0.30937620997428894,
        -0.0003905748308170587
      ],
      [
        0.06330561637878418,
        -0.07626350224018097,
        0.10923033952713013,
        -0.27294400334358215,
        -0.19434206187725067,
        0.2440209835767746,
        -0.3440682888031006,
        0.05551544949412346
      ],
      [
        0.27219104766845703,
        0.26505449414253235,
        0.12060358375310898,
        -0.3220520317554474,
        0.04551539197564125,
        -0.12432999908924103,
        -0.0993872806429863,
        0.27088993787765503
      ],
      [
        -0.12015244364738464,
        -0.2532046139240265,
        -0.2838107645511627,
        0.2232278734445572,
        0.017059864476323128,
        0.3491922914981842,
        0.07230287790298462,
        -0.3294830322265625
      ],
      [
        0.08747182041406631,
        0.32351693511009216,
        0.2192842811346054,
        0.10609769076108932,
        -0.26562607288360596,
        -0.21200281381607056,
        0.24006780982017517,
        -0.23640626668930054
      ],
      [
        0.08065734803676605,
        -0.04529833793640137,
        0.11846888810396194,
        0.02313373051583767,
        -0.26929113268852234,
        -0.1409291923046112,
        0.30836614966392517,
        0.04161879047751427
      ],
      [
        0.17927102744579315,
        -0.17836865782737732,
        0.27988722920417786,
        -0.07568301260471344,
        -0.11917003989219666,
        0.07171989977359772,
        -0.12668289244174957,
        -0.14207525551319122
      ],
      [
        -0.050591811537742615,
        -0.020184503868222237,
        -0.20108480751514435,
        0.12084934115409851,
        -0.3426577150821686,
        0.21703341603279114,
        0.327907919883728,
        0.05719887837767601
      ],
      [
        -0.08261068910360336,
        -0.3238198459148407,
        0.16602954268455505,
        0.2896946668624878,
        0.3022617995738983,
        0.031526390463113785,
        0.11754292249679565,
        0.33877822756767273
      ],
      [
        0.05277113988995552,
        -0.1706848293542862,
        -0.33567360043525696,
        0.15457740426063538,
        0.1377243995666504,
        0.3141973614692688,
        -0.17999590933322906,
        0.1518593430519104
      ],
      [
        -0.11697465926408768,
        -0.08787040412425995,
        0.20629364252090454,
        -0.32409459352493286,
        0.26061734557151794,
        0.16443714499473572,
        -0.21012361347675323,
        0.18041670322418213
      ]
    ],
    "shared_experts.gate_proj.weight": [
      [
        -0.19098275899887085,
        0.10205292701721191,
        0.14155980944633484,
        0.22037792205810547,
        -0.23798006772994995,
        0.22574058175086975,
        0.18952679634094238,
        0.24594038724899292,
